{
  "features_info":
    {
      "float_features":
        [
          {
            "borders":
              [
                51.5,
                258.5,
                429,
                458,
                701.5,
                1085.5,
                1405,
                1450.5,
                1490.5,
                1517,
                1573.5,
                1602,
                1638.5,
                1680.5,
                1749.5,
                1877,
                1909,
                2038,
                2148.5,
                2269,
                2341,
                2446,
                2563,
                2612,
                2661,
                2682,
                2725.5,
                2954.5,
                3034.5,
                3087,
                3155.5,
                3439,
                3669.5,
                3921.5,
                4039.5,
                4078.5,
                4103,
                4181.5,
                4482,
                4539,
                4593,
                4846.5,
                4941,
                5030,
                5110.5,
                5163,
                5259,
                5381,
                5409.5,
                5493,
                5528,
                5569.5,
                5643.5,
                5719.5,
                5769,
                5857,
                5963.5,
                6071.5,
                6201,
                6214.5,
                6255.5,
                6293.5,
                6430.5,
                6485,
                6635.5,
                6655,
                6739.5,
                6918.5,
                6975.5,
                7008.5,
                7113,
                7213,
                7262,
                7291.5,
                7445,
                7638.5,
                7717.5,
                7866.5,
                7993,
                8144.5,
                8169.5,
                8264.5,
                8324.5,
                8417,
                8509,
                8603.5,
                8686.5,
                8724.5,
                8776,
                8802.5,
                8881,
                8944,
                8981,
                9133,
                9258,
                9329.5,
                9394,
                9496.5,
                9522.5,
                9582.5,
                9658,
                9726,
                9770,
                9833.5,
                9934.5,
                9971.5,
                9986,
                10032,
                10097.5,
                10158,
                10205,
                10245.5,
                10301.5,
                10483.5,
                10527.5,
                10647.5,
                10675.5,
                10876,
                10950,
                11008.5,
                11047.5,
                11127
              ],
            "feature_index":0,
            "flat_feature_index":0,
            "has_nans":false,
            "nan_value_treatment":"AsIs"
          },
          {
            "borders":
              [
                15162.5,
                15530.5,
                17130.5,
                17416,
                18289,
                21742.5,
                23532.5,
                24697,
                25633,
                26547,
                26879.5,
                27581.5,
                27940.5,
                28669,
                31258,
                31575,
                32920.5,
                33182,
                33297.5,
                33587.5,
                34454,
                35592.5,
                36119,
                36272.5,
                36925.5,
                37062,
                37288,
                38034,
                38500,
                38585.5,
                38942.5,
                39331.5,
                39755,
                39910,
                40146,
                40446.5,
                40787,
                41026.5,
                42097.5,
                42344,
                42706.5,
                43007.5,
                43242.5,
                43621.5,
                43992,
                44157,
                44357,
                44576.5,
                44971,
                45686,
                45900,
                46034,
                46383.5,
                46991,
                47231.5,
                48712.5,
                48919,
                49422,
                49649.5,
                49957,
                50166.5,
                50755,
                50988.5,
                51144.5,
                51371,
                51381.5,
                51546,
                51844.5,
                52095.5,
                53457.5,
                53850.5,
                54163.5,
                54319,
                55255,
                55565.5,
                56460,
                57241.5,
                58568,
                59086.5,
                60569.5,
                60776.5,
                61141.5,
                61338.5,
                61513,
                62203.5,
                63361.5,
                64853,
                65762,
                66918.5,
                68774,
                69395,
                69985,
                70656.5,
                71439.5,
                71958.5,
                72904,
                73452,
                75134,
                75343.5,
                76996.5,
                77348,
                77559,
                78574,
                78863,
                79144.5,
                79529.5,
                79660.5,
                79876.5,
                80137.5,
                80581,
                81211,
                81746.5,
                82101,
                82340,
                82573.5,
                82972.5,
                83980.5,
                84596,
                85545.5,
                85977.5,
                86595,
                87250,
                90442.5,
                94428
              ],
            "feature_index":1,
            "flat_feature_index":1,
            "has_nans":false,
            "nan_value_treatment":"AsIs"
          },
          {
            "borders":
              [
                0.5,
                1.5,
                3.5,
                4.5,
                5.5,
                6.5,
                7.5,
                8.5,
                9.5,
                10.5,
                11.5,
                12.5,
                13.5,
                14.5,
                15.5,
                16.5,
                17.5,
                18.5,
                19.5,
                20.5,
                21.5,
                22.5,
                23.5,
                24.5,
                25.5,
                26.5,
                27.5,
                28.5,
                29.5,
                30.5,
                31.5,
                32.5,
                33.5,
                34.5,
                35.5,
                36.5,
                37.5,
                38.5,
                39.5,
                40.5,
                41.5,
                42.5,
                43.5,
                44.5,
                45.5,
                46.5,
                47.5,
                48.5,
                49.5,
                50.5,
                51.5,
                52.5,
                53.5,
                56.5,
                58.5,
                59.5,
                60.5,
                61.5,
                62.5,
                63.5,
                64.5,
                65.5,
                66.5,
                67.5,
                68.5,
                69.5,
                72.5,
                73.5,
                74.5,
                75.5,
                76.5,
                77.5,
                78.5,
                80.5,
                81.5,
                82.5,
                84.5,
                85.5,
                88.5,
                89.5,
                91.5,
                94.5,
                95.5
              ],
            "feature_index":2,
            "flat_feature_index":2,
            "has_nans":false,
            "nan_value_treatment":"AsIs"
          },
          {
            "borders":
              [
                1.5,
                2.5,
                3.5,
                4.5,
                6.5,
                7.5,
                8.5,
                10.5,
                14.5,
                15.5,
                21.5,
                24.5,
                29.5,
                30.5,
                31.5,
                32.5,
                34.5,
                40.5,
                45.5,
                46.5,
                50.5,
                51.5,
                56.5,
                64.5,
                66.5,
                72,
                84.5,
                90.5,
                91.5,
                98.5,
                99.5,
                101,
                106,
                121.5,
                137,
                139.5,
                148,
                153.5,
                161.5,
                171.5,
                179.5,
                181.5,
                199.5,
                203.5,
                206.5,
                215.5,
                218.5,
                225.5,
                230.5,
                236.5,
                244.5,
                263.5,
                269.5,
                278,
                291,
                300,
                304,
                311.5,
                315.5,
                339,
                344.5,
                349.5,
                360.5,
                366,
                370,
                387.5,
                397.5,
                407.5,
                443.5,
                452,
                455,
                459.5,
                463,
                474.5,
                485.5,
                492.5,
                497.5,
                514,
                521.5,
                527.5,
                532.5,
                541,
                587.5,
                594.5,
                612,
                621.5,
                633,
                639,
                665,
                668.5,
                672.5,
                679.5,
                690.5,
                700,
                710.5,
                715.5,
                722.5,
                727,
                735.5,
                751.5,
                761.5,
                775.5,
                790.5,
                795.5,
                800,
                815.5,
                834,
                838,
                850.5,
                862.5,
                893.5,
                900,
                908.5,
                915,
                939,
                955,
                962.5,
                969.5,
                998.5,
                1009,
                1070,
                1129,
                1161,
                1243.5
              ],
            "feature_index":3,
            "flat_feature_index":3,
            "has_nans":false,
            "nan_value_treatment":"AsIs"
          },
          {
            "borders":
              [
                0.5,
                1.5,
                2.5,
                3.5,
                4.5,
                5.5,
                6.5,
                7.5,
                8.5,
                9.5,
                10.5,
                11.5,
                12.5,
                13.5,
                14.5,
                15.5,
                16.5,
                17.5,
                18.5,
                19.5,
                20.5,
                21.5,
                23.5,
                24.5,
                25.5,
                26.5,
                27.5,
                28.5,
                29.5,
                32.5,
                35.5,
                37.5,
                42.5,
                45.5,
                46.5,
                47.5,
                49.5,
                50.5,
                53.5,
                54.5,
                55.5,
                56.5,
                58.5,
                61.5,
                62.5,
                63.5,
                66.5,
                68.5,
                71.5,
                75,
                76.5,
                78,
                79.5,
                81.5,
                82.5,
                84.5,
                87,
                88.5,
                90.5,
                91.5,
                92.5,
                94.5,
                96.5,
                103,
                105.5,
                131.5,
                137.5,
                145.5,
                148.5,
                150,
                151.5,
                152.5,
                161.5
              ],
            "feature_index":4,
            "flat_feature_index":4,
            "has_nans":false,
            "nan_value_treatment":"AsIs"
          },
          {
            "borders":
              [
                2.5,
                3.5,
                5.5,
                7.5,
                8.5,
                9.5,
                10.5,
                11.5,
                13.5,
                14.5,
                15.5,
                16.5,
                17.5,
                18.5,
                19.5,
                20.5,
                21.5,
                22.5,
                23.5,
                24.5,
                25.5,
                26.5,
                27.5,
                28.5,
                30.5,
                32.5,
                37.5,
                40.5,
                43.5,
                45.5,
                46.5,
                47.5,
                48.5,
                49.5,
                50.5,
                51.5,
                55.5,
                60.5,
                61.5,
                62.5,
                65.5,
                67.5,
                68.5,
                72.5,
                88.5,
                99.5,
                106.5,
                107.5,
                109.5,
                117.5,
                118.5,
                127.5,
                133.5,
                143.5,
                169.5,
                183.5,
                210,
                214.5,
                216.5,
                217.5,
                226.5,
                231.5,
                232.5,
                238.5,
                240.5,
                248.5,
                249.5,
                252.5,
                255.5,
                258,
                261,
                278.5,
                279.5,
                284,
                291.5,
                301.5,
                336,
                348.5,
                351.5,
                355,
                359.5,
                365,
                376.5,
                383,
                386.5,
                390,
                395.5,
                397,
                401.5,
                414.5,
                423,
                431.5,
                438,
                444.5,
                446,
                451,
                457.5,
                459.5,
                465,
                470.5,
                481,
                493.5,
                498.5,
                514,
                525.5,
                535.5,
                537.5,
                551,
                559.5,
                593,
                599.5,
                612.5,
                652.5,
                671,
                672.5,
                691.5,
                703.5,
                716.5,
                752,
                794.5,
                812.5,
                816.5,
                833.5,
                847,
                878,
                906,
                920
              ],
            "feature_index":5,
            "flat_feature_index":5,
            "has_nans":false,
            "nan_value_treatment":"AsIs"
          },
          {
            "borders":
              [
                0.5,
                1.5,
                2.5,
                3.5,
                6.5,
                7.5,
                9,
                10.5,
                11.5,
                15.5,
                16.5,
                18,
                20.5,
                25.5,
                28.5,
                31.5,
                37.5,
                38.5,
                44.5,
                49.5,
                51.5,
                53,
                55.5,
                57,
                63.5,
                64.5,
                75.5,
                77.5,
                79,
                81,
                84.5,
                89.5,
                92,
                93.5,
                94.5,
                96,
                97.5,
                98.5,
                100,
                105,
                109,
                110.5,
                111.5,
                113,
                114.5,
                115.5,
                117.5,
                123.5,
                128,
                131,
                139,
                142.5,
                145.5,
                146.5,
                149.5,
                150.5,
                152,
                154.5,
                157,
                158.5,
                159.5,
                162,
                165.5,
                172.5,
                174,
                177,
                190.5,
                193.5,
                200,
                203.5,
                206,
                217,
                232.5,
                238.5,
                241,
                248
              ],
            "feature_index":6,
            "flat_feature_index":6,
            "has_nans":false,
            "nan_value_treatment":"AsIs"
          },
          {
            "borders":
              [
                0.5,
                1.5,
                2.5,
                3.5,
                4.5,
                5.5,
                6.5,
                7.5,
                8.5,
                12.5,
                13.5,
                14.5,
                16.5,
                18.5,
                19.5,
                20.5,
                21.5,
                23.5,
                24.5,
                26.5,
                28.5,
                29.5,
                30.5,
                34.5,
                36.5,
                40.5,
                44.5,
                45.5,
                48.5,
                49.5,
                50.5,
                54.5,
                55.5,
                56.5,
                58.5,
                67.5,
                71.5,
                72.5,
                74.5,
                75.5,
                79.5,
                81.5,
                82.5,
                85,
                87.5,
                90,
                92.5,
                94.5,
                95.5,
                99,
                102.5,
                104,
                106.5,
                111.5,
                113.5,
                120.5,
                121.5,
                122.5,
                137.5,
                138.5,
                140.5,
                143.5,
                150.5,
                151.5,
                159,
                172.5,
                190.5,
                262.5
              ],
            "feature_index":7,
            "flat_feature_index":7,
            "has_nans":false,
            "nan_value_treatment":"AsIs"
          },
          {
            "borders":
              [
                0.5,
                1.5,
                2.5,
                4.5,
                6.5,
                7.5,
                8.5,
                9.5,
                10.5,
                11.5,
                12.5,
                13.5,
                14.5,
                15.5,
                16.5,
                17.5,
                18.5,
                19.5,
                20.5,
                21.5,
                22.5,
                24.5,
                25.5,
                26.5,
                27.5,
                28.5,
                29.5,
                30.5,
                31.5,
                32.5,
                33.5,
                34.5,
                36.5,
                37.5,
                39.5,
                40.5,
                41.5,
                42.5,
                43.5,
                44.5,
                45.5,
                46.5,
                47.5,
                48.5,
                51.5,
                52.5,
                53.5,
                54.5,
                55.5,
                60.5,
                62,
                64.5,
                67.5,
                68.5,
                71.5,
                72.5,
                75.5,
                77.5,
                82.5,
                83.5,
                88.5,
                89.5,
                90.5,
                92,
                93.5,
                97.5,
                99.5,
                106.5,
                107.5,
                111.5,
                113,
                118.5,
                120.5,
                124.5,
                125.5,
                127,
                128.5,
                129.5,
                131.5,
                134.5,
                136,
                137.5,
                139.5,
                145.5,
                150,
                154.5,
                162.5,
                171.5,
                173,
                179,
                184,
                190.5,
                191.5,
                217.5,
                231.5,
                236.5,
                241.5,
                248.5
              ],
            "feature_index":8,
            "flat_feature_index":8,
            "has_nans":false,
            "nan_value_treatment":"AsIs"
          },
          {
            "borders":
              [
                20.5,
                22.5,
                23.5,
                25.5,
                26.5,
                27.5,
                28.5,
                29.5,
                30.5,
                31.5,
                32.5,
                33.5,
                34.5,
                35.5,
                36.5,
                37.5,
                38.5,
                39.5,
                40.5,
                41.5,
                42.5,
                43.5,
                44.5,
                45.5,
                46.5,
                47.5,
                48.5,
                49.5,
                50.5,
                51.5,
                52.5,
                53.5,
                54.5,
                55.5,
                56.5,
                57.5,
                58.5,
                59.5,
                60.5,
                61.5,
                62.5,
                63.5,
                64.5,
                65.5,
                66.5,
                67.5,
                68.5,
                69.5,
                70.5,
                72,
                73.5,
                94
              ],
            "feature_index":9,
            "flat_feature_index":9,
            "has_nans":false,
            "nan_value_treatment":"AsIs"
          },
          {
            "borders":
              [
                0.5
              ],
            "feature_index":10,
            "flat_feature_index":10,
            "has_nans":false,
            "nan_value_treatment":"AsIs"
          },
          {
            "borders":
              [
                0.5
              ],
            "feature_index":11,
            "flat_feature_index":11,
            "has_nans":false,
            "nan_value_treatment":"AsIs"
          },
          {
            "borders":
              [
                0.5
              ],
            "feature_index":12,
            "flat_feature_index":12,
            "has_nans":false,
            "nan_value_treatment":"AsIs"
          },
          {
            "borders":
              [
                0.5
              ],
            "feature_index":13,
            "flat_feature_index":13,
            "has_nans":false,
            "nan_value_treatment":"AsIs"
          },
          {
            "borders":
              [
                0.5
              ],
            "feature_index":14,
            "flat_feature_index":14,
            "has_nans":false,
            "nan_value_treatment":"AsIs"
          },
          {
            "borders":null,
            "feature_index":15,
            "flat_feature_index":15,
            "has_nans":false,
            "nan_value_treatment":"AsIs"
          },
          {
            "borders":
              [
                0.5
              ],
            "feature_index":16,
            "flat_feature_index":16,
            "has_nans":false,
            "nan_value_treatment":"AsIs"
          },
          {
            "borders":
              [
                0.5
              ],
            "feature_index":17,
            "flat_feature_index":17,
            "has_nans":false,
            "nan_value_treatment":"AsIs"
          },
          {
            "borders":
              [
                0.5
              ],
            "feature_index":18,
            "flat_feature_index":18,
            "has_nans":false,
            "nan_value_treatment":"AsIs"
          },
          {
            "borders":
              [
                0.5
              ],
            "feature_index":19,
            "flat_feature_index":19,
            "has_nans":false,
            "nan_value_treatment":"AsIs"
          },
          {
            "borders":
              [
                0.5
              ],
            "feature_index":20,
            "flat_feature_index":20,
            "has_nans":false,
            "nan_value_treatment":"AsIs"
          },
          {
            "borders":
              [
                0.5
              ],
            "feature_index":21,
            "flat_feature_index":21,
            "has_nans":false,
            "nan_value_treatment":"AsIs"
          },
          {
            "borders":
              [
                0.5
              ],
            "feature_index":22,
            "flat_feature_index":22,
            "has_nans":false,
            "nan_value_treatment":"AsIs"
          },
          {
            "borders":
              [
                0.5
              ],
            "feature_index":23,
            "flat_feature_index":23,
            "has_nans":false,
            "nan_value_treatment":"AsIs"
          },
          {
            "borders":
              [
                0.5
              ],
            "feature_index":24,
            "flat_feature_index":24,
            "has_nans":false,
            "nan_value_treatment":"AsIs"
          },
          {
            "borders":
              [
                0.5
              ],
            "feature_index":25,
            "flat_feature_index":25,
            "has_nans":false,
            "nan_value_treatment":"AsIs"
          },
          {
            "borders":
              [
                0.5
              ],
            "feature_index":26,
            "flat_feature_index":26,
            "has_nans":false,
            "nan_value_treatment":"AsIs"
          },
          {
            "borders":
              [
                0.5
              ],
            "feature_index":27,
            "flat_feature_index":27,
            "has_nans":false,
            "nan_value_treatment":"AsIs"
          },
          {
            "borders":
              [
                0.5
              ],
            "feature_index":28,
            "flat_feature_index":28,
            "has_nans":false,
            "nan_value_treatment":"AsIs"
          },
          {
            "borders":
              [
                0.5
              ],
            "feature_index":29,
            "flat_feature_index":29,
            "has_nans":false,
            "nan_value_treatment":"AsIs"
          },
          {
            "borders":
              [
                0.5
              ],
            "feature_index":30,
            "flat_feature_index":30,
            "has_nans":false,
            "nan_value_treatment":"AsIs"
          },
          {
            "borders":
              [
                0.5
              ],
            "feature_index":31,
            "flat_feature_index":31,
            "has_nans":false,
            "nan_value_treatment":"AsIs"
          },
          {
            "borders":
              [
                0.5
              ],
            "feature_index":32,
            "flat_feature_index":32,
            "has_nans":false,
            "nan_value_treatment":"AsIs"
          },
          {
            "borders":
              [
                0.5
              ],
            "feature_index":33,
            "flat_feature_index":33,
            "has_nans":false,
            "nan_value_treatment":"AsIs"
          },
          {
            "borders":
              [
                0.5
              ],
            "feature_index":34,
            "flat_feature_index":34,
            "has_nans":false,
            "nan_value_treatment":"AsIs"
          },
          {
            "borders":
              [
                0.5
              ],
            "feature_index":35,
            "flat_feature_index":35,
            "has_nans":false,
            "nan_value_treatment":"AsIs"
          },
          {
            "borders":
              [
                0.5
              ],
            "feature_index":36,
            "flat_feature_index":36,
            "has_nans":false,
            "nan_value_treatment":"AsIs"
          },
          {
            "borders":
              [
                0.5
              ],
            "feature_index":37,
            "flat_feature_index":37,
            "has_nans":false,
            "nan_value_treatment":"AsIs"
          },
          {
            "borders":
              [
                0.5
              ],
            "feature_index":38,
            "flat_feature_index":38,
            "has_nans":false,
            "nan_value_treatment":"AsIs"
          },
          {
            "borders":
              [
                0.5
              ],
            "feature_index":39,
            "flat_feature_index":39,
            "has_nans":false,
            "nan_value_treatment":"AsIs"
          },
          {
            "borders":
              [
                0.5
              ],
            "feature_index":40,
            "flat_feature_index":40,
            "has_nans":false,
            "nan_value_treatment":"AsIs"
          },
          {
            "borders":
              [
                0.5
              ],
            "feature_index":41,
            "flat_feature_index":41,
            "has_nans":false,
            "nan_value_treatment":"AsIs"
          },
          {
            "borders":
              [
                0.5
              ],
            "feature_index":42,
            "flat_feature_index":42,
            "has_nans":false,
            "nan_value_treatment":"AsIs"
          },
          {
            "borders":
              [
                0.5
              ],
            "feature_index":43,
            "flat_feature_index":43,
            "has_nans":false,
            "nan_value_treatment":"AsIs"
          },
          {
            "borders":
              [
                0.5
              ],
            "feature_index":44,
            "flat_feature_index":44,
            "has_nans":false,
            "nan_value_treatment":"AsIs"
          },
          {
            "borders":
              [
                0.5
              ],
            "feature_index":45,
            "flat_feature_index":45,
            "has_nans":false,
            "nan_value_treatment":"AsIs"
          },
          {
            "borders":
              [
                0.5
              ],
            "feature_index":46,
            "flat_feature_index":46,
            "has_nans":false,
            "nan_value_treatment":"AsIs"
          },
          {
            "borders":
              [
                0.5
              ],
            "feature_index":47,
            "flat_feature_index":47,
            "has_nans":false,
            "nan_value_treatment":"AsIs"
          },
          {
            "borders":
              [
                0.5
              ],
            "feature_index":48,
            "flat_feature_index":48,
            "has_nans":false,
            "nan_value_treatment":"AsIs"
          },
          {
            "borders":
              [
                0.5
              ],
            "feature_index":49,
            "flat_feature_index":49,
            "has_nans":false,
            "nan_value_treatment":"AsIs"
          },
          {
            "borders":
              [
                0.5
              ],
            "feature_index":50,
            "flat_feature_index":50,
            "has_nans":false,
            "nan_value_treatment":"AsIs"
          },
          {
            "borders":
              [
                0.5
              ],
            "feature_index":51,
            "flat_feature_index":51,
            "has_nans":false,
            "nan_value_treatment":"AsIs"
          },
          {
            "borders":
              [
                0.5
              ],
            "feature_index":52,
            "flat_feature_index":52,
            "has_nans":false,
            "nan_value_treatment":"AsIs"
          },
          {
            "borders":
              [
                0.5
              ],
            "feature_index":53,
            "flat_feature_index":53,
            "has_nans":false,
            "nan_value_treatment":"AsIs"
          },
          {
            "borders":
              [
                0.5
              ],
            "feature_index":54,
            "flat_feature_index":54,
            "has_nans":false,
            "nan_value_treatment":"AsIs"
          },
          {
            "borders":
              [
                0.5
              ],
            "feature_index":55,
            "flat_feature_index":55,
            "has_nans":false,
            "nan_value_treatment":"AsIs"
          },
          {
            "borders":
              [
                0.5
              ],
            "feature_index":56,
            "flat_feature_index":56,
            "has_nans":false,
            "nan_value_treatment":"AsIs"
          },
          {
            "borders":
              [
                0.5
              ],
            "feature_index":57,
            "flat_feature_index":57,
            "has_nans":false,
            "nan_value_treatment":"AsIs"
          },
          {
            "borders":
              [
                0.5
              ],
            "feature_index":58,
            "flat_feature_index":58,
            "has_nans":false,
            "nan_value_treatment":"AsIs"
          },
          {
            "borders":
              [
                0.5
              ],
            "feature_index":59,
            "flat_feature_index":59,
            "has_nans":false,
            "nan_value_treatment":"AsIs"
          },
          {
            "borders":
              [
                0.5
              ],
            "feature_index":60,
            "flat_feature_index":60,
            "has_nans":false,
            "nan_value_treatment":"AsIs"
          },
          {
            "borders":
              [
                0.5
              ],
            "feature_index":61,
            "flat_feature_index":61,
            "has_nans":false,
            "nan_value_treatment":"AsIs"
          },
          {
            "borders":null,
            "feature_index":62,
            "flat_feature_index":62,
            "has_nans":false,
            "nan_value_treatment":"AsIs"
          },
          {
            "borders":
              [
                0.5
              ],
            "feature_index":63,
            "flat_feature_index":63,
            "has_nans":false,
            "nan_value_treatment":"AsIs"
          },
          {
            "borders":
              [
                0.5
              ],
            "feature_index":64,
            "flat_feature_index":64,
            "has_nans":false,
            "nan_value_treatment":"AsIs"
          },
          {
            "borders":
              [
                0.5
              ],
            "feature_index":65,
            "flat_feature_index":65,
            "has_nans":false,
            "nan_value_treatment":"AsIs"
          },
          {
            "borders":
              [
                0.5
              ],
            "feature_index":66,
            "flat_feature_index":66,
            "has_nans":false,
            "nan_value_treatment":"AsIs"
          },
          {
            "borders":
              [
                0.5
              ],
            "feature_index":67,
            "flat_feature_index":67,
            "has_nans":false,
            "nan_value_treatment":"AsIs"
          },
          {
            "borders":
              [
                0.5
              ],
            "feature_index":68,
            "flat_feature_index":68,
            "has_nans":false,
            "nan_value_treatment":"AsIs"
          },
          {
            "borders":
              [
                0.5
              ],
            "feature_index":69,
            "flat_feature_index":69,
            "has_nans":false,
            "nan_value_treatment":"AsIs"
          },
          {
            "borders":
              [
                0.5
              ],
            "feature_index":70,
            "flat_feature_index":70,
            "has_nans":false,
            "nan_value_treatment":"AsIs"
          },
          {
            "borders":
              [
                0.5
              ],
            "feature_index":71,
            "flat_feature_index":71,
            "has_nans":false,
            "nan_value_treatment":"AsIs"
          },
          {
            "borders":
              [
                0.5
              ],
            "feature_index":72,
            "flat_feature_index":72,
            "has_nans":false,
            "nan_value_treatment":"AsIs"
          },
          {
            "borders":
              [
                0.5
              ],
            "feature_index":73,
            "flat_feature_index":73,
            "has_nans":false,
            "nan_value_treatment":"AsIs"
          },
          {
            "borders":
              [
                0.5
              ],
            "feature_index":74,
            "flat_feature_index":74,
            "has_nans":false,
            "nan_value_treatment":"AsIs"
          },
          {
            "borders":
              [
                0.5
              ],
            "feature_index":75,
            "flat_feature_index":75,
            "has_nans":false,
            "nan_value_treatment":"AsIs"
          },
          {
            "borders":
              [
                0.5
              ],
            "feature_index":76,
            "flat_feature_index":76,
            "has_nans":false,
            "nan_value_treatment":"AsIs"
          },
          {
            "borders":
              [
                0.5
              ],
            "feature_index":77,
            "flat_feature_index":77,
            "has_nans":false,
            "nan_value_treatment":"AsIs"
          },
          {
            "borders":
              [
                0.5
              ],
            "feature_index":78,
            "flat_feature_index":78,
            "has_nans":false,
            "nan_value_treatment":"AsIs"
          },
          {
            "borders":
              [
                0.5
              ],
            "feature_index":79,
            "flat_feature_index":79,
            "has_nans":false,
            "nan_value_treatment":"AsIs"
          },
          {
            "borders":
              [
                0.5
              ],
            "feature_index":80,
            "flat_feature_index":80,
            "has_nans":false,
            "nan_value_treatment":"AsIs"
          },
          {
            "borders":
              [
                0.5
              ],
            "feature_index":81,
            "flat_feature_index":81,
            "has_nans":false,
            "nan_value_treatment":"AsIs"
          },
          {
            "borders":
              [
                0.5
              ],
            "feature_index":82,
            "flat_feature_index":82,
            "has_nans":false,
            "nan_value_treatment":"AsIs"
          },
          {
            "borders":
              [
                0.5
              ],
            "feature_index":83,
            "flat_feature_index":83,
            "has_nans":false,
            "nan_value_treatment":"AsIs"
          },
          {
            "borders":
              [
                0.5
              ],
            "feature_index":84,
            "flat_feature_index":84,
            "has_nans":false,
            "nan_value_treatment":"AsIs"
          },
          {
            "borders":
              [
                0.5
              ],
            "feature_index":85,
            "flat_feature_index":85,
            "has_nans":false,
            "nan_value_treatment":"AsIs"
          },
          {
            "borders":
              [
                0.5
              ],
            "feature_index":86,
            "flat_feature_index":86,
            "has_nans":false,
            "nan_value_treatment":"AsIs"
          },
          {
            "borders":
              [
                0.5
              ],
            "feature_index":87,
            "flat_feature_index":87,
            "has_nans":false,
            "nan_value_treatment":"AsIs"
          },
          {
            "borders":
              [
                0.5
              ],
            "feature_index":88,
            "flat_feature_index":88,
            "has_nans":false,
            "nan_value_treatment":"AsIs"
          },
          {
            "borders":
              [
                0.5
              ],
            "feature_index":89,
            "flat_feature_index":89,
            "has_nans":false,
            "nan_value_treatment":"AsIs"
          },
          {
            "borders":
              [
                0.5
              ],
            "feature_index":90,
            "flat_feature_index":90,
            "has_nans":false,
            "nan_value_treatment":"AsIs"
          },
          {
            "borders":null,
            "feature_index":91,
            "flat_feature_index":91,
            "has_nans":false,
            "nan_value_treatment":"AsIs"
          },
          {
            "borders":null,
            "feature_index":92,
            "flat_feature_index":92,
            "has_nans":false,
            "nan_value_treatment":"AsIs"
          },
          {
            "borders":
              [
                0.5
              ],
            "feature_index":93,
            "flat_feature_index":93,
            "has_nans":false,
            "nan_value_treatment":"AsIs"
          },
          {
            "borders":
              [
                0.5
              ],
            "feature_index":94,
            "flat_feature_index":94,
            "has_nans":false,
            "nan_value_treatment":"AsIs"
          },
          {
            "borders":
              [
                0.5
              ],
            "feature_index":95,
            "flat_feature_index":95,
            "has_nans":false,
            "nan_value_treatment":"AsIs"
          },
          {
            "borders":
              [
                0.5
              ],
            "feature_index":96,
            "flat_feature_index":96,
            "has_nans":false,
            "nan_value_treatment":"AsIs"
          },
          {
            "borders":
              [
                0.5
              ],
            "feature_index":97,
            "flat_feature_index":97,
            "has_nans":false,
            "nan_value_treatment":"AsIs"
          },
          {
            "borders":
              [
                0.5
              ],
            "feature_index":98,
            "flat_feature_index":98,
            "has_nans":false,
            "nan_value_treatment":"AsIs"
          },
          {
            "borders":
              [
                0.5
              ],
            "feature_index":99,
            "flat_feature_index":99,
            "has_nans":false,
            "nan_value_treatment":"AsIs"
          },
          {
            "borders":
              [
                0.5
              ],
            "feature_index":100,
            "flat_feature_index":100,
            "has_nans":false,
            "nan_value_treatment":"AsIs"
          },
          {
            "borders":
              [
                0.5
              ],
            "feature_index":101,
            "flat_feature_index":101,
            "has_nans":false,
            "nan_value_treatment":"AsIs"
          },
          {
            "borders":
              [
                0.5
              ],
            "feature_index":102,
            "flat_feature_index":102,
            "has_nans":false,
            "nan_value_treatment":"AsIs"
          },
          {
            "borders":
              [
                0.5
              ],
            "feature_index":103,
            "flat_feature_index":103,
            "has_nans":false,
            "nan_value_treatment":"AsIs"
          },
          {
            "borders":
              [
                0.5
              ],
            "feature_index":104,
            "flat_feature_index":104,
            "has_nans":false,
            "nan_value_treatment":"AsIs"
          },
          {
            "borders":
              [
                0.5
              ],
            "feature_index":105,
            "flat_feature_index":105,
            "has_nans":false,
            "nan_value_treatment":"AsIs"
          },
          {
            "borders":
              [
                0.5
              ],
            "feature_index":106,
            "flat_feature_index":106,
            "has_nans":false,
            "nan_value_treatment":"AsIs"
          },
          {
            "borders":
              [
                0.5
              ],
            "feature_index":107,
            "flat_feature_index":107,
            "has_nans":false,
            "nan_value_treatment":"AsIs"
          },
          {
            "borders":
              [
                0.5
              ],
            "feature_index":108,
            "flat_feature_index":108,
            "has_nans":false,
            "nan_value_treatment":"AsIs"
          },
          {
            "borders":
              [
                0.5
              ],
            "feature_index":109,
            "flat_feature_index":109,
            "has_nans":false,
            "nan_value_treatment":"AsIs"
          },
          {
            "borders":
              [
                0.5
              ],
            "feature_index":110,
            "flat_feature_index":110,
            "has_nans":false,
            "nan_value_treatment":"AsIs"
          },
          {
            "borders":
              [
                0.5
              ],
            "feature_index":111,
            "flat_feature_index":111,
            "has_nans":false,
            "nan_value_treatment":"AsIs"
          },
          {
            "borders":
              [
                0.5
              ],
            "feature_index":112,
            "flat_feature_index":112,
            "has_nans":false,
            "nan_value_treatment":"AsIs"
          },
          {
            "borders":
              [
                0.5
              ],
            "feature_index":113,
            "flat_feature_index":113,
            "has_nans":false,
            "nan_value_treatment":"AsIs"
          }
        ]
    },
  "model_info":
    {
      "catboost_version_info":"Git info:\n    Commit: 9807fe7f2feac62fa0f791f6bc39f3b9d87d3c28\n    Branch: heads/master\n    Author: arcadia-devtools <arcadia-devtools@yandex-team.ru>\n    Summary: intermediate changes ref:4e618b6ea7baa25e4b8acf26d4ad99e5f79c487c\n    git-svn info:\n    Last Changed Rev: 6149120\n\nOther info:\n    Build by: zomb-ml-platform-msk\n    Top src dir: /Users/zomb-ml-platform-msk/Library/Application Support/Go Agent/pipelines/BuildMaster/catboost.git\n    Top build dir: /Users/zomb-ml-platform-msk/.ya/build\n    Hostname: zomb-ml-platform-msk-macmini.zombie.yandex.net\n    Host information: \n        Darwin zomb-ml-platform-msk-macmini.zombie.yandex.net 17.6.0 Darwin Kernel Version 17.6.0: Tue May  8 15:22:16 PDT 2018; root:xnu-4570.61.1~1/RELEASE_X86_64 x86_64\n\n    ",
      "model_guid":"68e23cdd-4caedfab-b45c5d5c-9b46309b",
      "output_options":"{\"name\":\"experiment\",\"verbose\":0,\"test_error_log\":\"test_error.tsv\",\"json_log\":\"catboost_training.json\",\"result_model_file\":\"model\",\"roc_file\":\"\",\"eval_file_name\":\"\",\"use_best_model\":false,\"allow_writing_files\":true,\"prediction_type\":[\"RawFormulaVal\"],\"fstr_internal_file\":\"\",\"output_columns\":[\"SampleId\",\"RawFormulaVal\",\"Label\"],\"snapshot_interval\":600,\"time_left_log\":\"time_left.tsv\",\"fstr_type\":\"FeatureImportance\",\"profile_log\":\"catboost_profile.log\",\"train_dir\":\"catboost_info\",\"learn_error_log\":\"learn_error.tsv\",\"training_options_file\":\"\",\"snapshot_file\":\"experiment.cbsnapshot\",\"save_snapshot\":false,\"model_format\":[\"CatboostBinary\"],\"final_feature_calcer_computation_mode\":\"Default\",\"metric_period\":1,\"output_borders\":\"\",\"final_ctr_computation_mode\":\"Default\",\"best_model_min_trees\":1,\"fstr_regular_file\":\"\"}",
      "params":
        {
          "boosting_options":
            {
              "approx_on_full_history":false,
              "boost_from_average":false,
              "boosting_type":"Plain",
              "fold_len_multiplier":2,
              "fold_permutation_block":0,
              "iterations":1000,
              "learning_rate":0.017862999809999999,
              "model_shrink_rate":0,
              "od_config":
                {
                  "stop_pvalue":0,
                  "type":"None",
                  "wait_iterations":20
                },
              "permutation_count":4
            },
          "cat_feature_params":
            {
              "combinations_ctrs":
                [
                  {
                    "ctr_binarization":
                      {
                        "border_count":15,
                        "border_type":"Uniform"
                      },
                    "ctr_type":"Borders",
                    "prior_estimation":"No",
                    "priors":
                      [
                        [
                          0,
                          1
                        ],
                        [
                          0.5,
                          1
                        ],
                        [
                          1,
                          1
                        ]
                      ],
                    "target_binarization":
                      {
                        "border_count":1,
                        "border_type":"MinEntropy"
                      }
                  },
                  {
                    "ctr_binarization":
                      {
                        "border_count":15,
                        "border_type":"Uniform"
                      },
                    "ctr_type":"Counter",
                    "prior_estimation":"No",
                    "priors":
                      [
                        [
                          0,
                          1
                        ]
                      ]
                  }
                ],
              "counter_calc_method":"SkipTest",
              "ctr_leaf_count_limit":18446744073709551615,
              "max_ctr_complexity":4,
              "one_hot_max_size":2,
              "per_feature_ctrs":
                {
                },
              "simple_ctrs":
                [
                  {
                    "ctr_binarization":
                      {
                        "border_count":15,
                        "border_type":"Uniform"
                      },
                    "ctr_type":"Borders",
                    "prior_estimation":"No",
                    "priors":
                      [
                        [
                          0,
                          1
                        ],
                        [
                          0.5,
                          1
                        ],
                        [
                          1,
                          1
                        ]
                      ],
                    "target_binarization":
                      {
                        "border_count":1,
                        "border_type":"MinEntropy"
                      }
                  },
                  {
                    "ctr_binarization":
                      {
                        "border_count":15,
                        "border_type":"Uniform"
                      },
                    "ctr_type":"Counter",
                    "prior_estimation":"No",
                    "priors":
                      [
                        [
                          0,
                          1
                        ]
                      ]
                  }
                ],
              "store_all_simple_ctr":false,
              "target_binarization":
                {
                  "border_count":1,
                  "border_type":"MinEntropy"
                }
            },
          "data_processing_options":
            {
              "allow_const_label":false,
              "class_names":
                [
                  "0",
                  "1"
                ],
              "class_weights":
                [
                ],
              "classes_count":0,
              "dev_default_value_fraction_for_sparse":0.82999998330000002,
              "dev_group_features":false,
              "dev_leafwise_scoring":false,
              "dev_sparse_array_indexing":"Indices",
              "float_features_binarization":
                {
                  "border_count":254,
                  "border_type":"GreedyLogSum",
                  "nan_mode":"Min"
                },
              "has_time":false,
              "ignored_features":
                [
                ],
              "per_float_feature_quantization":
                {
                },
              "target_border":null,
              "text_processing_options":
                {
                  "dictionaries":
                    [
                      {
                        "dictionary_id":"BiGram",
                        "gram_order":"2",
                        "max_dict_size":"50000",
                        "min_token_occurrence":"5",
                        "token_level_type":"Word"
                      },
                      {
                        "dictionary_id":"Word",
                        "max_dict_size":"50000",
                        "min_token_occurrence":"5",
                        "token_level_type":"Word"
                      }
                    ],
                  "text_processing":
                    {
                      "default":
                        [
                          {
                            "dictionaries_names":
                              [
                                "BiGram",
                                "Word"
                              ],
                            "feature_calcer":"BoW"
                          },
                          {
                            "dictionaries_names":
                              [
                                "Word"
                              ],
                            "feature_calcer":"NaiveBayes"
                          }
                        ]
                    }
                }
            },
          "detailed_profile":false,
          "flat_params":
            {
              "logging_level":"Silent",
              "loss_function":"Logloss",
              "random_seed":1,
              "verbose":0
            },
          "logging_level":"Silent",
          "loss_function":
            {
              "params":
                {
                },
              "type":"Logloss"
            },
          "metadata":
            {
            },
          "metrics":
            {
              "custom_metrics":
                [
                ],
              "eval_metric":
                {
                  "params":
                    {
                    },
                  "type":"Logloss"
                },
              "objective_metric":
                {
                  "params":
                    {
                    },
                  "type":"Logloss"
                }
            },
          "random_seed":1,
          "system_options":
            {
              "file_with_hosts":"hosts.txt",
              "node_port":0,
              "node_type":"SingleHost",
              "thread_count":4,
              "used_ram_limit":""
            },
          "task_type":"CPU",
          "tree_learner_options":
            {
              "bayesian_matrix_reg":0.1000000015,
              "bootstrap":
                {
                  "mvs_reg":null,
                  "subsample":0.80000001190000003,
                  "type":"MVS"
                },
              "depth":6,
              "dev_efb_max_buckets":1024,
              "dev_leafwise_approxes":false,
              "dev_score_calc_obj_block_size":5000000,
              "l2_leaf_reg":3,
              "leaf_estimation_backtracking":"AnyImprovement",
              "leaf_estimation_iterations":10,
              "leaf_estimation_method":"Newton",
              "model_size_reg":0.5,
              "monotone_constraints":
                {
                },
              "random_strength":1,
              "rsm":1,
              "sampling_frequency":"PerTree",
              "score_function":"Cosine",
              "sparse_features_conflict_fraction":0
            }
        },
      "train_finish_time":"2020-05-11T18:25:50Z"
    },
  "oblivious_trees":
    [
      {
        "leaf_values":
          [
            -0.033263411220038938,
            -0.05345684529100863,
            -0.012381471356438769,
            -0.010499518227014731,
            -0.046246288126166643,
            -0.046246288126166643,
            -0.030600757356729787,
            -0.049431890726931924,
            -0.020129354333348334,
            -0.030600757356729787,
            -0.020129354333348334,
            -0.026904731161297116,
            0,
            -0.030600757356729787,
            -0.010823664473456568,
            0.020129354333348341,
            0,
            -0.030600757356729787,
            0,
            -0.020129354333348334,
            0,
            0,
            0,
            0,
            0,
            0,
            0,
            0,
            0,
            0,
            0,
            0,
            -0.019458342463114828,
            -0.042326798407764203,
            0.009124876359353884,
            -0.022659261130981559,
            0.012360916362162185,
            -0.029843526386399807,
            0,
            -0.023145740491976648,
            -0.054452495609179953,
            -0.05997733735156846,
            -0.026904731161297116,
            0,
            -0.046246288126166643,
            -0.020129354333348334,
            -0.020129354333348334,
            0,
            0,
            0,
            -0.020129354333348334,
            0,
            0,
            0,
            0,
            0,
            0,
            0,
            0,
            0,
            0,
            0,
            0,
            0
          ],
        "leaf_weights":
          [
            357,
            335,
            27,
            28,
            5,
            5,
            2,
            6,
            1,
            2,
            1,
            6,
            0,
            2,
            3,
            1,
            0,
            2,
            0,
            1,
            0,
            0,
            0,
            0,
            0,
            0,
            0,
            0,
            0,
            0,
            0,
            0,
            143,
            152,
            48,
            41,
            12,
            19,
            6,
            14,
            8,
            11,
            6,
            2,
            5,
            1,
            1,
            0,
            0,
            0,
            1,
            0,
            0,
            0,
            0,
            0,
            0,
            0,
            0,
            0,
            0,
            0,
            0,
            0
          ],
        "splits":
          [
            {
              "border":48.5,
              "float_feature_index":2,
              "split_index":293,
              "split_type":"FloatFeature"
            },
            {
              "border":665,
              "float_feature_index":3,
              "split_index":417,
              "split_type":"FloatFeature"
            },
            {
              "border":0.5,
              "float_feature_index":57,
              "split_index":993,
              "split_type":"FloatFeature"
            },
            {
              "border":0.5,
              "float_feature_index":66,
              "split_index":1001,
              "split_type":"FloatFeature"
            },
            {
              "border":72,
              "float_feature_index":9,
              "split_index":944,
              "split_type":"FloatFeature"
            },
            {
              "border":36.5,
              "float_feature_index":8,
              "split_index":829,
              "split_type":"FloatFeature"
            }
          ]
      },
      {
        "leaf_values":
          [
            -0.043330396104118471,
            -0.042461389997461282,
            0.037530644906359219,
            0.03086108039885831,
            -0.020414877870016088,
            0.00029640097713605083,
            0.01796718115332065,
            0,
            -0.032782026213569126,
            -0.0084484553291768513,
            -0.020017530252118824,
            0,
            0.0019223235929191585,
            0,
            0,
            0,
            -0.035072526396711025,
            -0.059213594030131357,
            0,
            0,
            -0.021897958999973485,
            0,
            0,
            0,
            -0.031298646768850566,
            -0.030279279106366071,
            0,
            0,
            0.0042926909485633304,
            0,
            0,
            0,
            -0.0060570941353855047,
            0.013104512318406605,
            0,
            -0.030195078096171422,
            0.02675314034483859,
            0,
            0.030805872683466393,
            0,
            -0.0066662350741305988,
            0,
            0,
            0,
            0,
            0,
            0,
            0,
            0.00054171538303694267,
            0.02051301909553082,
            0.020338892877150811,
            0,
            0,
            0,
            0,
            0,
            0.02051301909553082,
            -0.019647918127345648,
            0,
            0,
            0,
            0,
            0.020046924257626698,
            0
          ],
        "leaf_weights":
          [
            586,
            171,
            3,
            2,
            118,
            2,
            4,
            0,
            60,
            8,
            1,
            0,
            23,
            0,
            0,
            0,
            109,
            33,
            0,
            0,
            18,
            0,
            0,
            0,
            14,
            2,
            0,
            0,
            9,
            0,
            0,
            0,
            44,
            12,
            0,
            2,
            11,
            0,
            2,
            0,
            5,
            0,
            0,
            0,
            0,
            0,
            0,
            0,
            10,
            1,
            1,
            0,
            0,
            0,
            0,
            0,
            1,
            1,
            0,
            0,
            0,
            0,
            1,
            0
          ],
        "splits":
          [
            {
              "border":0.5,
              "float_feature_index":82,
              "split_index":1017,
              "split_type":"FloatFeature"
            },
            {
              "border":0.5,
              "float_feature_index":89,
              "split_index":1024,
              "split_type":"FloatFeature"
            },
            {
              "border":75134,
              "float_feature_index":1,
              "split_index":219,
              "split_type":"FloatFeature"
            },
            {
              "border":0.5,
              "float_feature_index":46,
              "split_index":982,
              "split_type":"FloatFeature"
            },
            {
              "border":0.5,
              "float_feature_index":105,
              "split_index":1038,
              "split_type":"FloatFeature"
            },
            {
              "border":0.5,
              "float_feature_index":85,
              "split_index":1020,
              "split_type":"FloatFeature"
            }
          ]
      },
      {
        "leaf_values":
          [
            0.020202194105601791,
            -0.019448441809723188,
            0.011269984853352602,
            -0.025476314776884963,
            0.022327042441362441,
            -0.030747784225652598,
            0.0058728857053677195,
            -0.026537125244618005,
            0,
            0,
            0,
            0,
            0,
            0,
            0,
            0,
            0.020008181186435155,
            -0.019464485383292051,
            0,
            -0.029492200777458569,
            0.019884915623806714,
            -0.0099982991369856715,
            0.011483116821746893,
            -0.041112388098656333,
            0,
            0,
            0,
            0,
            0,
            0,
            0,
            0,
            0.023153892282995341,
            -0.017426960055577562,
            -0.014497672984224382,
            -0.046719697948865824,
            0.026342107215168963,
            -0.026173482745100202,
            -0.0098459519156558865,
            -0.040663366771311063,
            0,
            -0.01964593127616733,
            0,
            0,
            0,
            -0.01951455976588564,
            0,
            -0.019440670362616826,
            0,
            -0.021761655731400882,
            -0.019630115445931226,
            -0.068020642145009844,
            -0.019833564387236841,
            -0.024394026813413485,
            0.011397182138064097,
            -0.053104361994341626,
            0,
            0,
            0,
            0,
            0,
            0,
            0,
            0
          ],
        "leaf_weights":
          [
            1,
            1,
            3,
            11,
            9,
            14,
            14,
            23,
            0,
            0,
            0,
            0,
            0,
            0,
            0,
            0,
            1,
            1,
            0,
            2,
            1,
            3,
            3,
            4,
            0,
            0,
            0,
            0,
            0,
            0,
            0,
            0,
            5,
            84,
            10,
            158,
            16,
            258,
            28,
            496,
            0,
            1,
            0,
            0,
            0,
            1,
            0,
            1,
            0,
            5,
            1,
            19,
            1,
            31,
            3,
            45,
            0,
            0,
            0,
            0,
            0,
            0,
            0,
            0
          ],
        "splits":
          [
            {
              "border":0.5,
              "float_feature_index":87,
              "split_index":1022,
              "split_type":"FloatFeature"
            },
            {
              "border":32.5,
              "float_feature_index":2,
              "split_index":277,
              "split_type":"FloatFeature"
            },
            {
              "border":2661,
              "float_feature_index":0,
              "split_index":24,
              "split_type":"FloatFeature"
            },
            {
              "border":0.5,
              "float_feature_index":30,
              "split_index":966,
              "split_type":"FloatFeature"
            },
            {
              "border":0.5,
              "float_feature_index":98,
              "split_index":1031,
              "split_type":"FloatFeature"
            },
            {
              "border":0.5,
              "float_feature_index":86,
              "split_index":1021,
              "split_type":"FloatFeature"
            }
          ]
      },
      {
        "leaf_values":
          [
            -0.037137445403901369,
            -0.038509974840369658,
            -0.022529015542512035,
            0.00082389631551193674,
            -0.0031376086955769663,
            -0.0089777980816239458,
            0.011095917697225717,
            0,
            -0.050215970880685593,
            -0.029012491737281286,
            0,
            0,
            0,
            0,
            0,
            0,
            -0.048105097187943917,
            0,
            -0.047625131169425468,
            -0.01906243992269422,
            0.0057274347457852981,
            0,
            -0.017144677269939262,
            0,
            0,
            0,
            0,
            0,
            0,
            0,
            0,
            0,
            -0.023139801119313963,
            -0.030879410714045711,
            -0.02701832780544761,
            0.0017172166331843233,
            0.022200512360991933,
            0.0017320715509976234,
            0.020266220216543975,
            0,
            0,
            0.021189251924428384,
            0.020538139753467136,
            0,
            0,
            0,
            0,
            0,
            -0.01815128810423882,
            0,
            -0.019330168734625775,
            0,
            0.031027569042936021,
            0,
            0,
            0,
            0,
            0,
            0,
            0,
            0,
            0,
            0,
            0
          ],
        "leaf_weights":
          [
            643,
            171,
            63,
            4,
            36,
            3,
            14,
            0,
            7,
            2,
            0,
            0,
            0,
            0,
            0,
            0,
            19,
            0,
            6,
            1,
            7,
            0,
            4,
            0,
            0,
            0,
            0,
            0,
            0,
            0,
            0,
            0,
            177,
            44,
            18,
            4,
            13,
            4,
            1,
            0,
            0,
            1,
            1,
            0,
            0,
            0,
            0,
            0,
            8,
            0,
            1,
            0,
            2,
            0,
            0,
            0,
            0,
            0,
            0,
            0,
            0,
            0,
            0,
            0
          ],
        "splits":
          [
            {
              "border":0.5,
              "float_feature_index":82,
              "split_index":1017,
              "split_type":"FloatFeature"
            },
            {
              "border":125.5,
              "float_feature_index":8,
              "split_index":871,
              "split_type":"FloatFeature"
            },
            {
              "border":0.5,
              "float_feature_index":88,
              "split_index":1023,
              "split_type":"FloatFeature"
            },
            {
              "border":0.5,
              "float_feature_index":90,
              "split_index":1025,
              "split_type":"FloatFeature"
            },
            {
              "border":140.5,
              "float_feature_index":7,
              "split_index":789,
              "split_type":"FloatFeature"
            },
            {
              "border":0.5,
              "float_feature_index":19,
              "split_index":955,
              "split_type":"FloatFeature"
            }
          ]
      },
      {
        "leaf_values":
          [
            -0.024131233080195543,
            -0.041086164961518602,
            0.002895518636229449,
            -0.017525905212568811,
            0.025215174544280305,
            -0.031640102109803288,
            0,
            -0.018871148717356963,
            -0.032860321057219304,
            -0.066896728642381442,
            -0.01714410002449495,
            -0.019642910493457785,
            -0.0086476962886191909,
            -0.024075295990050673,
            0,
            0,
            -0.024938280275246871,
            -0.022706596923203572,
            -0.029958387920671431,
            -0.010774437808325602,
            -0.019001319174527225,
            0.0015112641867692758,
            0,
            0,
            -0.015572510691352851,
            -0.067478812003675878,
            -0.01970345702508185,
            -0.040829780971676666,
            0,
            -0.035200934697996844,
            0,
            0,
            -0.018834535838844139,
            -0.04672444877462708,
            0,
            -0.018548614465148935,
            0.020351644032312349,
            0,
            0,
            0,
            -0.018834535838844139,
            0,
            0,
            0,
            0,
            0,
            0,
            0,
            0,
            0.020995164292179035,
            0,
            0,
            0,
            0,
            0,
            0,
            0,
            0,
            0,
            0,
            0,
            0,
            0,
            0
          ],
        "leaf_weights":
          [
            241,
            405,
            51,
            111,
            14,
            16,
            0,
            1,
            73,
            153,
            23,
            30,
            3,
            6,
            0,
            0,
            28,
            36,
            2,
            15,
            1,
            2,
            0,
            0,
            4,
            20,
            1,
            4,
            0,
            3,
            0,
            0,
            1,
            6,
            0,
            1,
            1,
            0,
            0,
            0,
            1,
            0,
            0,
            0,
            0,
            0,
            0,
            0,
            0,
            1,
            0,
            0,
            0,
            0,
            0,
            0,
            0,
            0,
            0,
            0,
            0,
            0,
            0,
            0
          ],
        "splits":
          [
            {
              "border":33.5,
              "float_feature_index":2,
              "split_index":278,
              "split_type":"FloatFeature"
            },
            {
              "border":587.5,
              "float_feature_index":3,
              "split_index":411,
              "split_type":"FloatFeature"
            },
            {
              "border":0.5,
              "float_feature_index":84,
              "split_index":1019,
              "split_type":"FloatFeature"
            },
            {
              "border":0.5,
              "float_feature_index":20,
              "split_index":956,
              "split_type":"FloatFeature"
            },
            {
              "border":0.5,
              "float_feature_index":94,
              "split_index":1027,
              "split_type":"FloatFeature"
            },
            {
              "border":0.5,
              "float_feature_index":90,
              "split_index":1025,
              "split_type":"FloatFeature"
            }
          ]
      },
      {
        "leaf_values":
          [
            -0.043787738349415788,
            -0.015459972808826734,
            0.0053608110387596058,
            0.0011491621665755238,
            -0.039097578551141432,
            -0.021192800792049483,
            -0.035461835262080556,
            0.01205191089225391,
            -0.0088522405627980208,
            0.019820702577809209,
            -0.0048377895446229998,
            0,
            0,
            0,
            0,
            0,
            -0.045466281371626824,
            -0.015669542874443755,
            0.0024057998455634948,
            0,
            -0.024065938139207561,
            0,
            0,
            0,
            -0.028112571504120776,
            0,
            0.02016733218574902,
            0,
            0,
            0,
            0,
            0,
            0.03834070090381847,
            0.0071088168223696581,
            -0.0088406003991995854,
            0.030362424318105034,
            0.030766825756468261,
            0,
            0,
            0.020301399627021849,
            0,
            0,
            0,
            0,
            0,
            0,
            0,
            0,
            0,
            0,
            0,
            0,
            0,
            0,
            0,
            0,
            0,
            0,
            0,
            0,
            0,
            0,
            0,
            0
          ],
        "leaf_weights":
          [
            749,
            200,
            57,
            14,
            69,
            24,
            3,
            3,
            38,
            1,
            5,
            0,
            0,
            0,
            0,
            0,
            49,
            15,
            2,
            0,
            6,
            0,
            0,
            0,
            2,
            0,
            1,
            0,
            0,
            0,
            0,
            0,
            3,
            5,
            3,
            2,
            2,
            0,
            0,
            1,
            0,
            0,
            0,
            0,
            0,
            0,
            0,
            0,
            0,
            0,
            0,
            0,
            0,
            0,
            0,
            0,
            0,
            0,
            0,
            0,
            0,
            0,
            0,
            0
          ],
        "splits":
          [
            {
              "border":279.5,
              "float_feature_index":5,
              "split_index":598,
              "split_type":"FloatFeature"
            },
            {
              "border":0.5,
              "float_feature_index":85,
              "split_index":1020,
              "split_type":"FloatFeature"
            },
            {
              "border":0.5,
              "float_feature_index":55,
              "split_index":991,
              "split_type":"FloatFeature"
            },
            {
              "border":0.5,
              "float_feature_index":84,
              "split_index":1019,
              "split_type":"FloatFeature"
            },
            {
              "border":10647.5,
              "float_feature_index":0,
              "split_index":115,
              "split_type":"FloatFeature"
            },
            {
              "border":0.5,
              "float_feature_index":89,
              "split_index":1024,
              "split_type":"FloatFeature"
            }
          ]
      },
      {
        "leaf_values":
          [
            0.0012965184086996631,
            0,
            0.0025908425968299374,
            0.056378544678589139,
            0,
            0,
            0,
            0,
            -0.041503878671719729,
            0.039353784657640993,
            -0.03779252466244537,
            -0.0030046234198771718,
            -0.01413859691051802,
            0,
            -0.034218143975789393,
            0.0092509109114678519,
            -0.018929022003530749,
            0,
            0.01325885821557886,
            -0.0093935176268190902,
            -0.018952596379135669,
            0,
            0,
            0,
            -0.01840173056918791,
            -0.018875200092245869,
            -0.031179098835415794,
            -0.019248778408724163,
            -0.028304808592652289,
            0,
            -0.0025745315908223916,
            -0.018531202039074719,
            0,
            0,
            0,
            0,
            0,
            0,
            0,
            0,
            0,
            0,
            -0.068028337531305758,
            0.02107217543016849,
            0,
            0,
            -0.013603042765619293,
            0.021348940858359464,
            0,
            0,
            0,
            0,
            0,
            0,
            0,
            0,
            0,
            0,
            -0.039613778883319857,
            0,
            0,
            0,
            0,
            0
          ],
        "leaf_weights":
          [
            4,
            0,
            66,
            9,
            0,
            0,
            0,
            0,
            28,
            3,
            790,
            56,
            4,
            0,
            153,
            15,
            1,
            0,
            12,
            3,
            1,
            0,
            0,
            0,
            1,
            1,
            64,
            1,
            2,
            0,
            7,
            1,
            0,
            0,
            0,
            0,
            0,
            0,
            0,
            0,
            0,
            0,
            22,
            1,
            0,
            0,
            4,
            1,
            0,
            0,
            0,
            0,
            0,
            0,
            0,
            0,
            0,
            0,
            4,
            0,
            0,
            0,
            0,
            0
          ],
        "splits":
          [
            {
              "border":0.5,
              "float_feature_index":85,
              "split_index":1020,
              "split_type":"FloatFeature"
            },
            {
              "border":0.5,
              "float_feature_index":113,
              "split_index":1046,
              "split_type":"FloatFeature"
            },
            {
              "border":0.5,
              "float_feature_index":83,
              "split_index":1018,
              "split_type":"FloatFeature"
            },
            {
              "border":0.5,
              "float_feature_index":87,
              "split_index":1022,
              "split_type":"FloatFeature"
            },
            {
              "border":0.5,
              "float_feature_index":56,
              "split_index":992,
              "split_type":"FloatFeature"
            },
            {
              "border":0.5,
              "float_feature_index":112,
              "split_index":1045,
              "split_type":"FloatFeature"
            }
          ]
      },
      {
        "leaf_values":
          [
            0.00029345867144551585,
            0.01810769259612623,
            0.0085555016744763273,
            0.00096962828035761174,
            -0.018305331654609177,
            0.0081656396245872124,
            -0.0020161229743176144,
            0.0041995120406128983,
            0,
            0,
            0,
            0,
            0.02162412352292897,
            0.0073150381015921664,
            0.0020184499436537349,
            0,
            -0.033712662895725533,
            -0.015065777621883979,
            -0.033861503487405256,
            -0.023753904774609744,
            -0.031879497352415596,
            -0.030286950403176107,
            -0.040467647212291756,
            -0.026365361824352902,
            -0.019003487412520351,
            0,
            -0.029569036441942174,
            -0.0093785479058555617,
            -0.023398242929032059,
            0,
            -0.019362235279891438,
            -0.014783071359385806,
            0,
            0,
            0.019619387919265131,
            -0.0092203196664672055,
            0,
            0.020651795135771776,
            0,
            0.037080497913722185,
            0,
            0,
            0,
            -0.018887038743959791,
            0,
            0,
            0,
            0,
            -0.039121178414964097,
            0.02118763067271813,
            -0.022535189168882797,
            -0.0057795296051472746,
            -0.030742329348642322,
            0.0018547020011941869,
            -0.025767627459414095,
            -0.037475709953271839,
            -0.017653545952180588,
            0,
            0.004347284316427948,
            -0.018133293708045405,
            -0.033907093512337075,
            0,
            -0.04198284333965336,
            0
          ],
        "leaf_weights":
          [
            2,
            11,
            5,
            22,
            1,
            5,
            9,
            24,
            0,
            0,
            0,
            0,
            1,
            5,
            2,
            0,
            66,
            4,
            288,
            50,
            78,
            8,
            349,
            50,
            14,
            0,
            47,
            6,
            23,
            0,
            62,
            4,
            0,
            0,
            1,
            3,
            0,
            1,
            0,
            3,
            0,
            0,
            0,
            1,
            0,
            0,
            0,
            0,
            4,
            1,
            33,
            8,
            9,
            2,
            26,
            12,
            1,
            0,
            4,
            1,
            3,
            0,
            5,
            0
          ],
        "splits":
          [
            {
              "border":621.5,
              "float_feature_index":3,
              "split_index":414,
              "split_type":"FloatFeature"
            },
            {
              "border":34.5,
              "float_feature_index":9,
              "split_index":907,
              "split_type":"FloatFeature"
            },
            {
              "border":5163,
              "float_feature_index":0,
              "split_index":45,
              "split_type":"FloatFeature"
            },
            {
              "border":0.5,
              "float_feature_index":44,
              "split_index":980,
              "split_type":"FloatFeature"
            },
            {
              "border":0.5,
              "float_feature_index":87,
              "split_index":1022,
              "split_type":"FloatFeature"
            },
            {
              "border":0.5,
              "float_feature_index":103,
              "split_index":1036,
              "split_type":"FloatFeature"
            }
          ]
      },
      {
        "leaf_values":
          [
            -0.028136004498164922,
            -0.027605801070775517,
            -0.029827581970066779,
            0,
            -0.019193505169569015,
            0,
            0.0028787513188523193,
            0,
            -0.035173997975532806,
            0,
            -0.029449986086222811,
            -0.017754872738554695,
            -0.038350785965801118,
            0,
            0,
            0,
            -0.013975485891320296,
            0,
            -0.019607960043906667,
            0,
            -0.018196602695476863,
            0,
            -0.018718874961799574,
            0,
            -0.025954552670135276,
            0,
            0,
            0,
            -0.042389151834547195,
            0,
            0.022195910976345816,
            0,
            -0.026946137595879726,
            0,
            0.00088183597844521816,
            0,
            -0.027558229779738579,
            0,
            0,
            0,
            -0.042375824394174796,
            0,
            0,
            0,
            -0.01796541308841525,
            0,
            -0.017798324405134666,
            0,
            -0.010410978409626341,
            0,
            0.00093994695100860475,
            0,
            -0.0036362185644229056,
            0,
            -0.0096897420150420643,
            0,
            -0.017830842166438876,
            0,
            0,
            0,
            0,
            0,
            0,
            0
          ],
        "leaf_weights":
          [
            801,
            2,
            23,
            0,
            28,
            0,
            2,
            0,
            126,
            0,
            2,
            1,
            4,
            0,
            0,
            0,
            107,
            0,
            19,
            0,
            36,
            0,
            13,
            0,
            7,
            0,
            0,
            0,
            5,
            0,
            1,
            0,
            34,
            0,
            2,
            0,
            7,
            0,
            0,
            0,
            5,
            0,
            0,
            0,
            1,
            0,
            1,
            0,
            16,
            0,
            2,
            0,
            5,
            0,
            3,
            0,
            1,
            0,
            0,
            0,
            0,
            0,
            0,
            0
          ],
        "splits":
          [
            {
              "border":0.5,
              "float_feature_index":30,
              "split_index":966,
              "split_type":"FloatFeature"
            },
            {
              "border":0.5,
              "float_feature_index":76,
              "split_index":1011,
              "split_type":"FloatFeature"
            },
            {
              "border":84.5,
              "float_feature_index":4,
              "split_index":508,
              "split_type":"FloatFeature"
            },
            {
              "border":0.5,
              "float_feature_index":111,
              "split_index":1044,
              "split_type":"FloatFeature"
            },
            {
              "border":77.5,
              "float_feature_index":6,
              "split_index":680,
              "split_type":"FloatFeature"
            },
            {
              "border":0.5,
              "float_feature_index":64,
              "split_index":999,
              "split_type":"FloatFeature"
            }
          ]
      },
      {
        "leaf_values":
          [
            0.0099771425280877919,
            0,
            0.019860280988034638,
            0,
            0.0084110114071333942,
            0,
            0.030549832797275397,
            0,
            -0.021008124381660626,
            0,
            -0.0012341339000617112,
            0,
            0.00086663284372022747,
            0,
            0.036972498575720027,
            0,
            -0.034571013641103231,
            -0.026860800602259313,
            0,
            0,
            -0.026927631125502397,
            -0.016737439774678359,
            -0.014439717611592285,
            0,
            -0.036868990167441079,
            -0.037180143323190577,
            0,
            0,
            -0.034614133108369527,
            -0.041902388887036401,
            0.03863107170497429,
            0,
            0,
            0,
            0,
            0,
            0,
            0,
            0.019892740388575109,
            0,
            0,
            0,
            0,
            0,
            0.0016098314717581589,
            0,
            0,
            0,
            0,
            0,
            0,
            0,
            -0.0059828329557399702,
            0,
            0,
            0,
            -0.017768145385921287,
            0,
            0,
            0,
            -0.049988241576670873,
            0,
            0,
            0
          ],
        "leaf_weights":
          [
            8,
            0,
            1,
            0,
            37,
            0,
            2,
            0,
            5,
            0,
            2,
            0,
            35,
            0,
            3,
            0,
            42,
            2,
            0,
            0,
            519,
            9,
            4,
            0,
            58,
            4,
            0,
            0,
            480,
            17,
            3,
            0,
            0,
            0,
            0,
            0,
            0,
            0,
            1,
            0,
            0,
            0,
            0,
            0,
            2,
            0,
            0,
            0,
            0,
            0,
            0,
            0,
            11,
            0,
            0,
            0,
            1,
            0,
            0,
            0,
            8,
            0,
            0,
            0
          ],
        "splits":
          [
            {
              "border":0.5,
              "float_feature_index":112,
              "split_index":1045,
              "split_type":"FloatFeature"
            },
            {
              "border":0.5,
              "float_feature_index":89,
              "split_index":1024,
              "split_type":"FloatFeature"
            },
            {
              "border":29.5,
              "float_feature_index":9,
              "split_index":902,
              "split_type":"FloatFeature"
            },
            {
              "border":0.5,
              "float_feature_index":12,
              "split_index":949,
              "split_type":"FloatFeature"
            },
            {
              "border":0.5,
              "float_feature_index":87,
              "split_index":1022,
              "split_type":"FloatFeature"
            },
            {
              "border":0.5,
              "float_feature_index":42,
              "split_index":978,
              "split_type":"FloatFeature"
            }
          ]
      },
      {
        "leaf_values":
          [
            0.022960167891282003,
            -0.01201160796535897,
            0.020457152527963925,
            0,
            0.010738245199903114,
            -0.015574346292478652,
            0.046561327683151597,
            -0.0032018284645999747,
            0,
            0,
            0,
            0,
            0,
            0,
            0,
            0,
            -0.007506765354237002,
            -0.026832882126634927,
            0.023986130007886058,
            -0.026685547811530812,
            -0.0079242239298449434,
            -0.032023887559063824,
            0.0026974416641234564,
            -0.011034180047606602,
            -0.016404502890747658,
            -0.031927178389262616,
            0.043518756944783056,
            -0.017556706788378881,
            -0.0029669128503520899,
            -0.04525384363399463,
            -0.01219898997721407,
            -0.043678948658806262,
            0.030893772237417568,
            0,
            0,
            0,
            0.031360752346763457,
            -0.047015229259430899,
            0,
            0.014418306642963315,
            0,
            0,
            0,
            0,
            0,
            0,
            0,
            0,
            0.021129579913150853,
            -0.026561745798293544,
            0,
            0.021783261061718049,
            0.03059843262533506,
            -0.050772994317851997,
            0,
            0.020934000533291575,
            0.021586924634484445,
            -0.01764111536832624,
            0.020894062252941537,
            -0.018410382045496772,
            -0.02867092403565662,
            -0.052334532819264951,
            0,
            -0.026899996957857591
          ],
        "leaf_weights":
          [
            5,
            11,
            1,
            0,
            3,
            178,
            5,
            15,
            0,
            0,
            0,
            0,
            0,
            0,
            0,
            0,
            8,
            21,
            5,
            2,
            11,
            453,
            19,
            38,
            4,
            19,
            4,
            1,
            7,
            287,
            13,
            18,
            2,
            0,
            0,
            0,
            2,
            22,
            0,
            3,
            0,
            0,
            0,
            0,
            0,
            0,
            0,
            0,
            1,
            2,
            0,
            1,
            2,
            51,
            0,
            1,
            1,
            1,
            1,
            1,
            2,
            31,
            0,
            2
          ],
        "splits":
          [
            {
              "border":0.5,
              "float_feature_index":87,
              "split_index":1022,
              "split_type":"FloatFeature"
            },
            {
              "border":498.5,
              "float_feature_index":5,
              "split_index":628,
              "split_type":"FloatFeature"
            },
            {
              "border":0.5,
              "float_feature_index":86,
              "split_index":1021,
              "split_type":"FloatFeature"
            },
            {
              "border":67.5,
              "float_feature_index":2,
              "split_index":309,
              "split_type":"FloatFeature"
            },
            {
              "border":18.5,
              "float_feature_index":2,
              "split_index":263,
              "split_type":"FloatFeature"
            },
            {
              "border":0.5,
              "float_feature_index":79,
              "split_index":1014,
              "split_type":"FloatFeature"
            }
          ]
      },
      {
        "leaf_values":
          [
            0.0010281416128616633,
            0.041068478509450682,
            0,
